digraph Tree {
node [shape=box, style="filled, rounded", color="black", fontname=helvetica] ;
edge [fontname=helvetica] ;
0 [label="Sex_Female <= 0.5\ngini = 0.485\nsamples = 462\nvalue = [418, 294]", fillcolor="#e581394c"] ;
1 [label="Fare <= 1.436\ngini = 0.344\nsamples = 304\nvalue = [374, 106]", fillcolor="#e58139b7"] ;
0 -> 1 [labeldistance=2.5, labelangle=45, headlabel="True"] ;
2 [label="Age <= 12.101\ngini = 0.233\nsamples = 217\nvalue = [295, 46]", fillcolor="#e58139d7"] ;
1 -> 2 ;
3 [label="Title_Mr <= 0.5\ngini = 0.165\nsamples = 12\nvalue = [2, 20]", fillcolor="#399de5e6"] ;
2 -> 3 ;
4 [label="gini = 0.0\nsamples = 11\nvalue = [0, 20]", fillcolor="#399de5ff"] ;
3 -> 4 ;
5 [label="gini = 0.0\nsamples = 1\nvalue = [2, 0]", fillcolor="#e58139ff"] ;
3 -> 5 ;
6 [label="Embarked_C <= 0.5\ngini = 0.15\nsamples = 205\nvalue = [293, 26]", fillcolor="#e58139e8"] ;
2 -> 6 ;
7 [label="Title_Mr <= 0.5\ngini = 0.129\nsamples = 188\nvalue = [269, 20]", fillcolor="#e58139ec"] ;
6 -> 7 ;
8 [label="gini = 0.0\nsamples = 7\nvalue = [18, 0]", fillcolor="#e58139ff"] ;
7 -> 8 ;
9 [label="Pclass <= 1.5\ngini = 0.137\nsamples = 181\nvalue = [251, 20]", fillcolor="#e58139eb"] ;
7 -> 9 ;
10 [label="gini = 0.0\nsamples = 5\nvalue = [8, 0]", fillcolor="#e58139ff"] ;
9 -> 10 ;
11 [label="Age <= 34.013\ngini = 0.141\nsamples = 176\nvalue = [243, 20]", fillcolor="#e58139ea"] ;
9 -> 11 ;
12 [label="Age <= 29.858\ngini = 0.167\nsamples = 122\nvalue = [168, 17]", fillcolor="#e58139e5"] ;
11 -> 12 ;
13 [label="Fare <= 0.445\ngini = 0.13\nsamples = 93\nvalue = [133, 10]", fillcolor="#e58139ec"] ;
12 -> 13 ;
14 [label="Pclass <= 2.5\ngini = 0.375\nsamples = 3\nvalue = [3, 1]", fillcolor="#e58139aa"] ;
13 -> 14 ;
15 [label="gini = 0.0\nsamples = 1\nvalue = [1, 0]", fillcolor="#e58139ff"] ;
14 -> 15 ;
16 [label="Age <= 22.0\ngini = 0.444\nsamples = 2\nvalue = [2, 1]", fillcolor="#e581397f"] ;
14 -> 16 ;
17 [label="gini = 0.0\nsamples = 1\nvalue = [2, 0]", fillcolor="#e58139ff"] ;
16 -> 17 ;
18 [label="gini = 0.0\nsamples = 1\nvalue = [0, 1]", fillcolor="#399de5ff"] ;
16 -> 18 ;
19 [label="Embarked_S <= 0.5\ngini = 0.121\nsamples = 90\nvalue = [130, 9]", fillcolor="#e58139ed"] ;
13 -> 19 ;
20 [label="gini = 0.0\nsamples = 10\nvalue = [15, 0]", fillcolor="#e58139ff"] ;
19 -> 20 ;
21 [label="Age <= 19.5\ngini = 0.135\nsamples = 80\nvalue = [115, 9]", fillcolor="#e58139eb"] ;
19 -> 21 ;
22 [label="Fare <= 0.959\ngini = 0.245\nsamples = 22\nvalue = [30, 5]", fillcolor="#e58139d4"] ;
21 -> 22 ;
23 [label="Fare <= 0.953\ngini = 0.375\nsamples = 12\nvalue = [15, 5]", fillcolor="#e58139aa"] ;
22 -> 23 ;
24 [label="gini = 0.0\nsamples = 4\nvalue = [6, 0]", fillcolor="#e58139ff"] ;
23 -> 24 ;
25 [label="Age <= 17.325\ngini = 0.459\nsamples = 8\nvalue = [9, 5]", fillcolor="#e5813971"] ;
23 -> 25 ;
26 [label="Age <= 15.979\ngini = 0.18\nsamples = 6\nvalue = [9, 1]", fillcolor="#e58139e3"] ;
25 -> 26 ;
27 [label="gini = 0.0\nsamples = 3\nvalue = [4, 0]", fillcolor="#e58139ff"] ;
26 -> 27 ;
28 [label="Age <= 16.325\ngini = 0.278\nsamples = 3\nvalue = [5, 1]", fillcolor="#e58139cc"] ;
26 -> 28 ;
29 [label="gini = 0.375\nsamples = 2\nvalue = [3, 1]", fillcolor="#e58139aa"] ;
28 -> 29 ;
30 [label="gini = 0.0\nsamples = 1\nvalue = [2, 0]", fillcolor="#e58139ff"] ;
28 -> 30 ;
31 [label="gini = 0.0\nsamples = 2\nvalue = [0, 4]", fillcolor="#399de5ff"] ;
25 -> 31 ;
32 [label="gini = 0.0\nsamples = 10\nvalue = [15, 0]", fillcolor="#e58139ff"] ;
22 -> 32 ;
33 [label="Fare <= 0.944\ngini = 0.086\nsamples = 58\nvalue = [85, 4]", fillcolor="#e58139f3"] ;
21 -> 33 ;
34 [label="gini = 0.0\nsamples = 13\nvalue = [19, 0]", fillcolor="#e58139ff"] ;
33 -> 34 ;
35 [label="Fare <= 0.946\ngini = 0.108\nsamples = 45\nvalue = [66, 4]", fillcolor="#e58139f0"] ;
33 -> 35 ;
36 [label="Age <= 27.5\ngini = 0.5\nsamples = 2\nvalue = [1, 1]", fillcolor="#e5813900"] ;
35 -> 36 ;
37 [label="gini = 0.0\nsamples = 1\nvalue = [0, 1]", fillcolor="#399de5ff"] ;
36 -> 37 ;
38 [label="gini = 0.0\nsamples = 1\nvalue = [1, 0]", fillcolor="#e58139ff"] ;
36 -> 38 ;
39 [label="Fare <= 1.154\ngini = 0.084\nsamples = 43\nvalue = [65, 3]", fillcolor="#e58139f3"] ;
35 -> 39 ;
40 [label="Age <= 27.455\ngini = 0.103\nsamples = 34\nvalue = [52, 3]", fillcolor="#e58139f0"] ;
39 -> 40 ;
41 [label="Age <= 20.5\ngini = 0.05\nsamples = 25\nvalue = [38, 1]", fillcolor="#e58139f8"] ;
40 -> 41 ;
42 [label="Fare <= 0.954\ngini = 0.153\nsamples = 7\nvalue = [11, 1]", fillcolor="#e58139e8"] ;
41 -> 42 ;
43 [label="gini = 0.444\nsamples = 2\nvalue = [2, 1]", fillcolor="#e581397f"] ;
42 -> 43 ;
44 [label="gini = 0.0\nsamples = 5\nvalue = [9, 0]", fillcolor="#e58139ff"] ;
42 -> 44 ;
45 [label="gini = 0.0\nsamples = 18\nvalue = [27, 0]", fillcolor="#e58139ff"] ;
41 -> 45 ;
46 [label="Fare <= 0.989\ngini = 0.219\nsamples = 9\nvalue = [14, 2]", fillcolor="#e58139db"] ;
40 -> 46 ;
47 [label="gini = 0.0\nsamples = 5\nvalue = [9, 0]", fillcolor="#e58139ff"] ;
46 -> 47 ;
48 [label="Pclass <= 2.5\ngini = 0.408\nsamples = 4\nvalue = [5, 2]", fillcolor="#e5813999"] ;
46 -> 48 ;
49 [label="Age <= 27.76\ngini = 0.278\nsamples = 3\nvalue = [5, 1]", fillcolor="#e58139cc"] ;
48 -> 49 ;
50 [label="gini = 0.0\nsamples = 1\nvalue = [0, 1]", fillcolor="#399de5ff"] ;
49 -> 50 ;
51 [label="gini = 0.0\nsamples = 2\nvalue = [5, 0]", fillcolor="#e58139ff"] ;
49 -> 51 ;
52 [label="gini = 0.0\nsamples = 1\nvalue = [0, 1]", fillcolor="#399de5ff"] ;
48 -> 52 ;
53 [label="gini = 0.0\nsamples = 9\nvalue = [13, 0]", fillcolor="#e58139ff"] ;
39 -> 53 ;
54 [label="Pclass <= 2.5\ngini = 0.278\nsamples = 29\nvalue = [35, 7]", fillcolor="#e58139cc"] ;
12 -> 54 ;
55 [label="Fare <= 1.387\ngini = 0.305\nsamples = 10\nvalue = [13, 3]", fillcolor="#e58139c4"] ;
54 -> 55 ;
56 [label="Age <= 33.5\ngini = 0.231\nsamples = 9\nvalue = [13, 2]", fillcolor="#e58139d8"] ;
55 -> 56 ;
57 [label="gini = 0.0\nsamples = 4\nvalue = [6, 0]", fillcolor="#e58139ff"] ;
56 -> 57 ;
58 [label="Fare <= 1.244\ngini = 0.346\nsamples = 5\nvalue = [7, 2]", fillcolor="#e58139b6"] ;
56 -> 58 ;
59 [label="gini = 0.48\nsamples = 3\nvalue = [3, 2]", fillcolor="#e5813955"] ;
58 -> 59 ;
60 [label="gini = 0.0\nsamples = 2\nvalue = [4, 0]", fillcolor="#e58139ff"] ;
58 -> 60 ;
61 [label="gini = 0.0\nsamples = 1\nvalue = [0, 1]", fillcolor="#399de5ff"] ;
55 -> 61 ;
62 [label="Age <= 32.325\ngini = 0.26\nsamples = 19\nvalue = [22, 4]", fillcolor="#e58139d1"] ;
54 -> 62 ;
63 [label="Embarked_S <= 0.5\ngini = 0.391\nsamples = 11\nvalue = [11, 4]", fillcolor="#e58139a2"] ;
62 -> 63 ;
64 [label="gini = 0.0\nsamples = 1\nvalue = [2, 0]", fillcolor="#e58139ff"] ;
63 -> 64 ;
65 [label="Fare <= 0.948\ngini = 0.426\nsamples = 10\nvalue = [9, 4]", fillcolor="#e581398e"] ;
63 -> 65 ;
66 [label="gini = 0.0\nsamples = 1\nvalue = [0, 1]", fillcolor="#399de5ff"] ;
65 -> 66 ;
67 [label="Fare <= 0.954\ngini = 0.375\nsamples = 9\nvalue = [9, 3]", fillcolor="#e58139aa"] ;
65 -> 67 ;
68 [label="gini = 0.0\nsamples = 3\nvalue = [3, 0]", fillcolor="#e58139ff"] ;
67 -> 68 ;
69 [label="Age <= 31.0\ngini = 0.444\nsamples = 6\nvalue = [6, 3]", fillcolor="#e581397f"] ;
67 -> 69 ;
70 [label="Fare <= 0.989\ngini = 0.48\nsamples = 3\nvalue = [3, 2]", fillcolor="#e5813955"] ;
69 -> 70 ;
71 [label="gini = 0.0\nsamples = 1\nvalue = [2, 0]", fillcolor="#e58139ff"] ;
70 -> 71 ;
72 [label="Fare <= 1.127\ngini = 0.444\nsamples = 2\nvalue = [1, 2]", fillcolor="#399de57f"] ;
70 -> 72 ;
73 [label="gini = 0.0\nsamples = 1\nvalue = [0, 2]", fillcolor="#399de5ff"] ;
72 -> 73 ;
74 [label="gini = 0.0\nsamples = 1\nvalue = [1, 0]", fillcolor="#e58139ff"] ;
72 -> 74 ;
75 [label="Fare <= 0.964\ngini = 0.375\nsamples = 3\nvalue = [3, 1]", fillcolor="#e58139aa"] ;
69 -> 75 ;
76 [label="gini = 0.0\nsamples = 1\nvalue = [0, 1]", fillcolor="#399de5ff"] ;
75 -> 76 ;
77 [label="gini = 0.0\nsamples = 2\nvalue = [3, 0]", fillcolor="#e58139ff"] ;
75 -> 77 ;
78 [label="gini = 0.0\nsamples = 8\nvalue = [11, 0]", fillcolor="#e58139ff"] ;
62 -> 78 ;
79 [label="Pclass <= 2.5\ngini = 0.074\nsamples = 54\nvalue = [75, 3]", fillcolor="#e58139f5"] ;
11 -> 79 ;
80 [label="gini = 0.0\nsamples = 15\nvalue = [23, 0]", fillcolor="#e58139ff"] ;
79 -> 80 ;
81 [label="Fare <= 0.954\ngini = 0.103\nsamples = 39\nvalue = [52, 3]", fillcolor="#e58139f0"] ;
79 -> 81 ;
82 [label="gini = 0.0\nsamples = 17\nvalue = [23, 0]", fillcolor="#e58139ff"] ;
81 -> 82 ;
83 [label="Fare <= 1.309\ngini = 0.17\nsamples = 22\nvalue = [29, 3]", fillcolor="#e58139e5"] ;
81 -> 83 ;
84 [label="Fare <= 0.965\ngini = 0.137\nsamples = 19\nvalue = [25, 2]", fillcolor="#e58139eb"] ;
83 -> 84 ;
85 [label="Age <= 44.5\ngini = 0.245\nsamples = 11\nvalue = [12, 2]", fillcolor="#e58139d4"] ;
84 -> 85 ;
86 [label="gini = 0.0\nsamples = 8\nvalue = [10, 0]", fillcolor="#e58139ff"] ;
85 -> 86 ;
87 [label="Age <= 48.0\ngini = 0.5\nsamples = 3\nvalue = [2, 2]", fillcolor="#e5813900"] ;
85 -> 87 ;
88 [label="gini = 0.0\nsamples = 1\nvalue = [0, 2]", fillcolor="#399de5ff"] ;
87 -> 88 ;
89 [label="gini = 0.0\nsamples = 2\nvalue = [2, 0]", fillcolor="#e58139ff"] ;
87 -> 89 ;
90 [label="gini = 0.0\nsamples = 8\nvalue = [13, 0]", fillcolor="#e58139ff"] ;
84 -> 90 ;
91 [label="Embarked_Q <= 0.5\ngini = 0.32\nsamples = 3\nvalue = [4, 1]", fillcolor="#e58139bf"] ;
83 -> 91 ;
92 [label="gini = 0.0\nsamples = 2\nvalue = [4, 0]", fillcolor="#e58139ff"] ;
91 -> 92 ;
93 [label="gini = 0.0\nsamples = 1\nvalue = [0, 1]", fillcolor="#399de5ff"] ;
91 -> 93 ;
94 [label="Age <= 42.635\ngini = 0.32\nsamples = 17\nvalue = [24, 6]", fillcolor="#e58139bf"] ;
6 -> 94 ;
95 [label="Fare <= 1.251\ngini = 0.083\nsamples = 13\nvalue = [22, 1]", fillcolor="#e58139f3"] ;
94 -> 95 ;
96 [label="gini = 0.0\nsamples = 10\nvalue = [19, 0]", fillcolor="#e58139ff"] ;
95 -> 96 ;
97 [label="Pclass <= 2.5\ngini = 0.375\nsamples = 3\nvalue = [3, 1]", fillcolor="#e58139aa"] ;
95 -> 97 ;
98 [label="gini = 0.0\nsamples = 1\nvalue = [2, 0]", fillcolor="#e58139ff"] ;
97 -> 98 ;
99 [label="Fare <= 1.326\ngini = 0.5\nsamples = 2\nvalue = [1, 1]", fillcolor="#e5813900"] ;
97 -> 99 ;
100 [label="gini = 0.0\nsamples = 1\nvalue = [0, 1]", fillcolor="#399de5ff"] ;
99 -> 100 ;
101 [label="gini = 0.0\nsamples = 1\nvalue = [1, 0]", fillcolor="#e58139ff"] ;
99 -> 101 ;
102 [label="Age <= 52.348\ngini = 0.408\nsamples = 4\nvalue = [2, 5]", fillcolor="#399de599"] ;
94 -> 102 ;
103 [label="Title_Master <= 0.5\ngini = 0.5\nsamples = 3\nvalue = [2, 2]", fillcolor="#e5813900"] ;
102 -> 103 ;
104 [label="gini = 0.0\nsamples = 2\nvalue = [2, 0]", fillcolor="#e58139ff"] ;
103 -> 104 ;
105 [label="gini = 0.0\nsamples = 1\nvalue = [0, 2]", fillcolor="#399de5ff"] ;
103 -> 105 ;
106 [label="gini = 0.0\nsamples = 1\nvalue = [0, 3]", fillcolor="#399de5ff"] ;
102 -> 106 ;
107 [label="Pclass <= 1.5\ngini = 0.491\nsamples = 87\nvalue = [79, 60]", fillcolor="#e581393d"] ;
1 -> 107 ;
108 [label="Title_Mr <= 0.5\ngini = 0.5\nsamples = 63\nvalue = [49, 50]", fillcolor="#399de505"] ;
107 -> 108 ;
109 [label="Age <= 35.636\ngini = 0.459\nsamples = 10\nvalue = [5, 9]", fillcolor="#399de571"] ;
108 -> 109 ;
110 [label="gini = 0.0\nsamples = 4\nvalue = [0, 5]", fillcolor="#399de5ff"] ;
109 -> 110 ;
111 [label="Fare <= 1.686\ngini = 0.494\nsamples = 6\nvalue = [5, 4]", fillcolor="#e5813933"] ;
109 -> 111 ;
112 [label="Fare <= 1.501\ngini = 0.278\nsamples = 4\nvalue = [5, 1]", fillcolor="#e58139cc"] ;
111 -> 112 ;
113 [label="gini = 0.0\nsamples = 2\nvalue = [3, 0]", fillcolor="#e58139ff"] ;
112 -> 113 ;
114 [label="Fare <= 1.585\ngini = 0.444\nsamples = 2\nvalue = [2, 1]", fillcolor="#e581397f"] ;
112 -> 114 ;
115 [label="gini = 0.0\nsamples = 1\nvalue = [0, 1]", fillcolor="#399de5ff"] ;
114 -> 115 ;
116 [label="gini = 0.0\nsamples = 1\nvalue = [2, 0]", fillcolor="#e58139ff"] ;
114 -> 116 ;
117 [label="gini = 0.0\nsamples = 2\nvalue = [0, 3]", fillcolor="#399de5ff"] ;
111 -> 117 ;
118 [label="Age <= 43.61\ngini = 0.499\nsamples = 53\nvalue = [44, 41]", fillcolor="#e5813911"] ;
108 -> 118 ;
119 [label="Embarked_S <= 0.5\ngini = 0.459\nsamples = 32\nvalue = [20, 36]", fillcolor="#399de571"] ;
118 -> 119 ;
120 [label="Age <= 35.264\ngini = 0.463\nsamples = 10\nvalue = [8, 14]", fillcolor="#399de56d"] ;
119 -> 120 ;
121 [label="Age <= 27.0\ngini = 0.5\nsamples = 8\nvalue = [8, 8]", fillcolor="#e5813900"] ;
120 -> 121 ;
122 [label="Age <= 24.5\ngini = 0.444\nsamples = 6\nvalue = [4, 8]", fillcolor="#399de57f"] ;
121 -> 122 ;
123 [label="Age <= 23.5\ngini = 0.494\nsamples = 4\nvalue = [4, 5]", fillcolor="#399de533"] ;
122 -> 123 ;
124 [label="Age <= 22.5\ngini = 0.278\nsamples = 3\nvalue = [1, 5]", fillcolor="#399de5cc"] ;
123 -> 124 ;
125 [label="Fare <= 2.092\ngini = 0.444\nsamples = 2\nvalue = [1, 2]", fillcolor="#399de57f"] ;
124 -> 125 ;
126 [label="gini = 0.0\nsamples = 1\nvalue = [0, 2]", fillcolor="#399de5ff"] ;
125 -> 126 ;
127 [label="gini = 0.0\nsamples = 1\nvalue = [1, 0]", fillcolor="#e58139ff"] ;
125 -> 127 ;
128 [label="gini = 0.0\nsamples = 1\nvalue = [0, 3]", fillcolor="#399de5ff"] ;
124 -> 128 ;
129 [label="gini = 0.0\nsamples = 1\nvalue = [3, 0]", fillcolor="#e58139ff"] ;
123 -> 129 ;
130 [label="gini = 0.0\nsamples = 2\nvalue = [0, 3]", fillcolor="#399de5ff"] ;
122 -> 130 ;
131 [label="gini = 0.0\nsamples = 2\nvalue = [4, 0]", fillcolor="#e58139ff"] ;
121 -> 131 ;
132 [label="gini = 0.0\nsamples = 2\nvalue = [0, 6]", fillcolor="#399de5ff"] ;
120 -> 132 ;
133 [label="Fare <= 1.6\ngini = 0.457\nsamples = 22\nvalue = [12, 22]", fillcolor="#399de574"] ;
119 -> 133 ;
134 [label="Age <= 30.098\ngini = 0.188\nsamples = 10\nvalue = [2, 17]", fillcolor="#399de5e1"] ;
133 -> 134 ;
135 [label="Age <= 28.5\ngini = 0.375\nsamples = 4\nvalue = [2, 6]", fillcolor="#399de5aa"] ;
134 -> 135 ;
136 [label="gini = 0.0\nsamples = 3\nvalue = [0, 6]", fillcolor="#399de5ff"] ;
135 -> 136 ;
137 [label="gini = 0.0\nsamples = 1\nvalue = [2, 0]", fillcolor="#e58139ff"] ;
135 -> 137 ;
138 [label="gini = 0.0\nsamples = 6\nvalue = [0, 11]", fillcolor="#399de5ff"] ;
134 -> 138 ;
139 [label="Fare <= 1.931\ngini = 0.444\nsamples = 12\nvalue = [10, 5]", fillcolor="#e581397f"] ;
133 -> 139 ;
140 [label="Age <= 36.594\ngini = 0.278\nsamples = 10\nvalue = [10, 2]", fillcolor="#e58139cc"] ;
139 -> 140 ;
141 [label="gini = 0.0\nsamples = 9\nvalue = [10, 0]", fillcolor="#e58139ff"] ;
140 -> 141 ;
142 [label="gini = 0.0\nsamples = 1\nvalue = [0, 2]", fillcolor="#399de5ff"] ;
140 -> 142 ;
143 [label="gini = 0.0\nsamples = 2\nvalue = [0, 3]", fillcolor="#399de5ff"] ;
139 -> 143 ;
144 [label="Age <= 72.5\ngini = 0.285\nsamples = 21\nvalue = [24, 5]", fillcolor="#e58139ca"] ;
118 -> 144 ;
145 [label="Embarked_C <= 0.5\ngini = 0.245\nsamples = 20\nvalue = [24, 4]", fillcolor="#e58139d4"] ;
144 -> 145 ;
146 [label="Age <= 52.5\ngini = 0.32\nsamples = 14\nvalue = [16, 4]", fillcolor="#e58139bf"] ;
145 -> 146 ;
147 [label="Age <= 47.5\ngini = 0.408\nsamples = 10\nvalue = [10, 4]", fillcolor="#e5813999"] ;
146 -> 147 ;
148 [label="Age <= 45.5\ngini = 0.18\nsamples = 6\nvalue = [9, 1]", fillcolor="#e58139e3"] ;
147 -> 148 ;
149 [label="Fare <= 1.501\ngini = 0.375\nsamples = 3\nvalue = [3, 1]", fillcolor="#e58139aa"] ;
148 -> 149 ;
150 [label="gini = 0.0\nsamples = 1\nvalue = [0, 1]", fillcolor="#399de5ff"] ;
149 -> 150 ;
151 [label="gini = 0.0\nsamples = 2\nvalue = [3, 0]", fillcolor="#e58139ff"] ;
149 -> 151 ;
152 [label="gini = 0.0\nsamples = 3\nvalue = [6, 0]", fillcolor="#e58139ff"] ;
148 -> 152 ;
153 [label="Fare <= 1.473\ngini = 0.375\nsamples = 4\nvalue = [1, 3]", fillcolor="#399de5aa"] ;
147 -> 153 ;
154 [label="gini = 0.0\nsamples = 2\nvalue = [0, 2]", fillcolor="#399de5ff"] ;
153 -> 154 ;
155 [label="Age <= 48.021\ngini = 0.5\nsamples = 2\nvalue = [1, 1]", fillcolor="#e5813900"] ;
153 -> 155 ;
156 [label="gini = 0.0\nsamples = 1\nvalue = [0, 1]", fillcolor="#399de5ff"] ;
155 -> 156 ;
157 [label="gini = 0.0\nsamples = 1\nvalue = [1, 0]", fillcolor="#e58139ff"] ;
155 -> 157 ;
158 [label="gini = 0.0\nsamples = 4\nvalue = [6, 0]", fillcolor="#e58139ff"] ;
146 -> 158 ;
159 [label="gini = 0.0\nsamples = 6\nvalue = [8, 0]", fillcolor="#e58139ff"] ;
145 -> 159 ;
160 [label="gini = 0.0\nsamples = 1\nvalue = [0, 1]", fillcolor="#399de5ff"] ;
144 -> 160 ;
161 [label="Title_Master <= 0.5\ngini = 0.375\nsamples = 24\nvalue = [30, 10]", fillcolor="#e58139aa"] ;
107 -> 161 ;
162 [label="Fare <= 1.72\ngini = 0.287\nsamples = 13\nvalue = [19, 4]", fillcolor="#e58139c9"] ;
161 -> 162 ;
163 [label="gini = 0.0\nsamples = 6\nvalue = [11, 0]", fillcolor="#e58139ff"] ;
162 -> 163 ;
164 [label="Pclass <= 2.5\ngini = 0.444\nsamples = 7\nvalue = [8, 4]", fillcolor="#e581397f"] ;
162 -> 164 ;
165 [label="gini = 0.0\nsamples = 3\nvalue = [6, 0]", fillcolor="#e58139ff"] ;
164 -> 165 ;
166 [label="Age <= 10.821\ngini = 0.444\nsamples = 4\nvalue = [2, 4]", fillcolor="#399de57f"] ;
164 -> 166 ;
167 [label="gini = 0.0\nsamples = 1\nvalue = [0, 2]", fillcolor="#399de5ff"] ;
166 -> 167 ;
168 [label="Fare <= 1.804\ngini = 0.5\nsamples = 3\nvalue = [2, 2]", fillcolor="#e5813900"] ;
166 -> 168 ;
169 [label="Age <= 30.0\ngini = 0.444\nsamples = 2\nvalue = [1, 2]", fillcolor="#399de57f"] ;
168 -> 169 ;
170 [label="gini = 0.0\nsamples = 1\nvalue = [1, 0]", fillcolor="#e58139ff"] ;
169 -> 170 ;
171 [label="gini = 0.0\nsamples = 1\nvalue = [0, 2]", fillcolor="#399de5ff"] ;
169 -> 171 ;
172 [label="gini = 0.0\nsamples = 1\nvalue = [1, 0]", fillcolor="#e58139ff"] ;
168 -> 172 ;
173 [label="Pclass <= 2.5\ngini = 0.457\nsamples = 11\nvalue = [11, 6]", fillcolor="#e5813974"] ;
161 -> 173 ;
174 [label="gini = 0.0\nsamples = 2\nvalue = [0, 5]", fillcolor="#399de5ff"] ;
173 -> 174 ;
175 [label="Fare <= 1.51\ngini = 0.153\nsamples = 9\nvalue = [11, 1]", fillcolor="#e58139e8"] ;
173 -> 175 ;
176 [label="gini = 0.0\nsamples = 3\nvalue = [5, 0]", fillcolor="#e58139ff"] ;
175 -> 176 ;
177 [label="Age <= 6.0\ngini = 0.245\nsamples = 6\nvalue = [6, 1]", fillcolor="#e58139d4"] ;
175 -> 177 ;
178 [label="Age <= 2.0\ngini = 0.444\nsamples = 3\nvalue = [2, 1]", fillcolor="#e581397f"] ;
177 -> 178 ;
179 [label="gini = 0.0\nsamples = 2\nvalue = [2, 0]", fillcolor="#e58139ff"] ;
178 -> 179 ;
180 [label="gini = 0.0\nsamples = 1\nvalue = [0, 1]", fillcolor="#399de5ff"] ;
178 -> 180 ;
181 [label="gini = 0.0\nsamples = 3\nvalue = [4, 0]", fillcolor="#e58139ff"] ;
177 -> 181 ;
182 [label="Embarked_Q <= 0.5\ngini = 0.307\nsamples = 158\nvalue = [44, 188]", fillcolor="#399de5c3"] ;
0 -> 182 [labeldistance=2.5, labelangle=-45, headlabel="False"] ;
183 [label="Fare <= 1.853\ngini = 0.316\nsamples = 139\nvalue = [40, 163]", fillcolor="#399de5c0"] ;
182 -> 183 ;
184 [label="Embarked_C <= 0.5\ngini = 0.398\nsamples = 106\nvalue = [40, 106]", fillcolor="#399de59f"] ;
183 -> 184 ;
185 [label="Age <= 15.724\ngini = 0.439\nsamples = 87\nvalue = [38, 79]", fillcolor="#399de584"] ;
184 -> 185 ;
186 [label="Age <= 7.5\ngini = 0.455\nsamples = 13\nvalue = [13, 7]", fillcolor="#e5813976"] ;
185 -> 186 ;
187 [label="Pclass <= 2.5\ngini = 0.486\nsamples = 7\nvalue = [5, 7]", fillcolor="#399de549"] ;
186 -> 187 ;
188 [label="gini = 0.0\nsamples = 2\nvalue = [0, 3]", fillcolor="#399de5ff"] ;
187 -> 188 ;
189 [label="Fare <= 1.392\ngini = 0.494\nsamples = 5\nvalue = [5, 4]", fillcolor="#e5813933"] ;
187 -> 189 ;
190 [label="gini = 0.0\nsamples = 3\nvalue = [0, 4]", fillcolor="#399de5ff"] ;
189 -> 190 ;
191 [label="gini = 0.0\nsamples = 2\nvalue = [5, 0]", fillcolor="#e58139ff"] ;
189 -> 191 ;
192 [label="gini = 0.0\nsamples = 6\nvalue = [8, 0]", fillcolor="#e58139ff"] ;
186 -> 192 ;
193 [label="Pclass <= 2.5\ngini = 0.383\nsamples = 74\nvalue = [25, 72]", fillcolor="#399de5a6"] ;
185 -> 193 ;
194 [label="Title_Rare_Title <= 0.5\ngini = 0.158\nsamples = 44\nvalue = [5, 53]", fillcolor="#399de5e7"] ;
193 -> 194 ;
195 [label="Age <= 25.0\ngini = 0.16\nsamples = 43\nvalue = [5, 52]", fillcolor="#399de5e6"] ;
194 -> 195 ;
196 [label="gini = 0.0\nsamples = 15\nvalue = [0, 18]", fillcolor="#399de5ff"] ;
195 -> 196 ;
197 [label="Title_Mrs <= 0.5\ngini = 0.224\nsamples = 28\nvalue = [5, 34]", fillcolor="#399de5da"] ;
195 -> 197 ;
198 [label="Fare <= 1.244\ngini = 0.117\nsamples = 11\nvalue = [1, 15]", fillcolor="#399de5ee"] ;
197 -> 198 ;
199 [label="Fare <= 1.103\ngini = 0.165\nsamples = 8\nvalue = [1, 10]", fillcolor="#399de5e6"] ;
198 -> 199 ;
200 [label="gini = 0.0\nsamples = 2\nvalue = [0, 3]", fillcolor="#399de5ff"] ;
199 -> 200 ;
201 [label="Age <= 35.25\ngini = 0.219\nsamples = 6\nvalue = [1, 7]", fillcolor="#399de5db"] ;
199 -> 201 ;
202 [label="gini = 0.0\nsamples = 4\nvalue = [0, 5]", fillcolor="#399de5ff"] ;
201 -> 202 ;
203 [label="Age <= 39.0\ngini = 0.444\nsamples = 2\nvalue = [1, 2]", fillcolor="#399de57f"] ;
201 -> 203 ;
204 [label="gini = 0.0\nsamples = 1\nvalue = [1, 0]", fillcolor="#e58139ff"] ;
203 -> 204 ;
205 [label="gini = 0.0\nsamples = 1\nvalue = [0, 2]", fillcolor="#399de5ff"] ;
203 -> 205 ;
206 [label="gini = 0.0\nsamples = 3\nvalue = [0, 5]", fillcolor="#399de5ff"] ;
198 -> 206 ;
207 [label="Age <= 27.5\ngini = 0.287\nsamples = 17\nvalue = [4, 19]", fillcolor="#399de5c9"] ;
197 -> 207 ;
208 [label="gini = 0.0\nsamples = 2\nvalue = [2, 0]", fillcolor="#e58139ff"] ;
207 -> 208 ;
209 [label="Pclass <= 1.5\ngini = 0.172\nsamples = 15\nvalue = [2, 19]", fillcolor="#399de5e4"] ;
207 -> 209 ;
210 [label="gini = 0.0\nsamples = 4\nvalue = [0, 5]", fillcolor="#399de5ff"] ;
209 -> 210 ;
211 [label="Fare <= 1.103\ngini = 0.219\nsamples = 11\nvalue = [2, 14]", fillcolor="#399de5db"] ;
209 -> 211 ;
212 [label="Age <= 43.0\ngini = 0.5\nsamples = 2\nvalue = [1, 1]", fillcolor="#e5813900"] ;
211 -> 212 ;
213 [label="gini = 0.0\nsamples = 1\nvalue = [0, 1]", fillcolor="#399de5ff"] ;
212 -> 213 ;
214 [label="gini = 0.0\nsamples = 1\nvalue = [1, 0]", fillcolor="#e58139ff"] ;
212 -> 214 ;
215 [label="Fare <= 1.406\ngini = 0.133\nsamples = 9\nvalue = [1, 13]", fillcolor="#399de5eb"] ;
211 -> 215 ;
216 [label="gini = 0.0\nsamples = 3\nvalue = [0, 5]", fillcolor="#399de5ff"] ;
215 -> 216 ;
217 [label="Fare <= 1.433\ngini = 0.198\nsamples = 6\nvalue = [1, 8]", fillcolor="#399de5df"] ;
215 -> 217 ;
218 [label="Age <= 43.0\ngini = 0.375\nsamples = 3\nvalue = [1, 3]", fillcolor="#399de5aa"] ;
217 -> 218 ;
219 [label="gini = 0.0\nsamples = 2\nvalue = [0, 3]", fillcolor="#399de5ff"] ;
218 -> 219 ;
220 [label="gini = 0.0\nsamples = 1\nvalue = [1, 0]", fillcolor="#e58139ff"] ;
218 -> 220 ;
221 [label="gini = 0.0\nsamples = 3\nvalue = [0, 5]", fillcolor="#399de5ff"] ;
217 -> 221 ;
222 [label="gini = 0.0\nsamples = 1\nvalue = [0, 1]", fillcolor="#399de5ff"] ;
194 -> 222 ;
223 [label="Fare <= 1.336\ngini = 0.5\nsamples = 30\nvalue = [20, 19]", fillcolor="#e581390d"] ;
193 -> 223 ;
224 [label="Age <= 21.5\ngini = 0.489\nsamples = 24\nvalue = [14, 19]", fillcolor="#399de543"] ;
223 -> 224 ;
225 [label="Title_Miss <= 0.5\ngini = 0.498\nsamples = 9\nvalue = [8, 7]", fillcolor="#e5813920"] ;
224 -> 225 ;
226 [label="Age <= 19.073\ngini = 0.48\nsamples = 3\nvalue = [2, 3]", fillcolor="#399de555"] ;
225 -> 226 ;
227 [label="Fare <= 1.145\ngini = 0.5\nsamples = 2\nvalue = [2, 2]", fillcolor="#e5813900"] ;
226 -> 227 ;
228 [label="gini = 0.0\nsamples = 1\nvalue = [0, 2]", fillcolor="#399de5ff"] ;
227 -> 228 ;
229 [label="gini = 0.0\nsamples = 1\nvalue = [2, 0]", fillcolor="#e58139ff"] ;
227 -> 229 ;
230 [label="gini = 0.0\nsamples = 1\nvalue = [0, 1]", fillcolor="#399de5ff"] ;
226 -> 230 ;
231 [label="Age <= 19.0\ngini = 0.48\nsamples = 6\nvalue = [6, 4]", fillcolor="#e5813955"] ;
225 -> 231 ;
232 [label="gini = 0.0\nsamples = 2\nvalue = [0, 3]", fillcolor="#399de5ff"] ;
231 -> 232 ;
233 [label="Fare <= 0.961\ngini = 0.245\nsamples = 4\nvalue = [6, 1]", fillcolor="#e58139d4"] ;
231 -> 233 ;
234 [label="gini = 0.0\nsamples = 1\nvalue = [0, 1]", fillcolor="#399de5ff"] ;
233 -> 234 ;
235 [label="gini = 0.0\nsamples = 3\nvalue = [6, 0]", fillcolor="#e58139ff"] ;
233 -> 235 ;
236 [label="Title_Mrs <= 0.5\ngini = 0.444\nsamples = 15\nvalue = [6, 12]", fillcolor="#399de57f"] ;
224 -> 236 ;
237 [label="Fare <= 0.947\ngini = 0.49\nsamples = 6\nvalue = [3, 4]", fillcolor="#399de540"] ;
236 -> 237 ;
238 [label="Fare <= 0.924\ngini = 0.32\nsamples = 4\nvalue = [1, 4]", fillcolor="#399de5bf"] ;
237 -> 238 ;
239 [label="gini = 0.0\nsamples = 1\nvalue = [0, 2]", fillcolor="#399de5ff"] ;
238 -> 239 ;
240 [label="Fare <= 0.938\ngini = 0.444\nsamples = 3\nvalue = [1, 2]", fillcolor="#399de57f"] ;
238 -> 240 ;
241 [label="Age <= 38.215\ngini = 0.5\nsamples = 2\nvalue = [1, 1]", fillcolor="#e5813900"] ;
240 -> 241 ;
242 [label="gini = 0.0\nsamples = 1\nvalue = [0, 1]", fillcolor="#399de5ff"] ;
241 -> 242 ;
243 [label="gini = 0.0\nsamples = 1\nvalue = [1, 0]", fillcolor="#e58139ff"] ;
241 -> 243 ;
244 [label="gini = 0.0\nsamples = 1\nvalue = [0, 1]", fillcolor="#399de5ff"] ;
240 -> 244 ;
245 [label="gini = 0.0\nsamples = 2\nvalue = [2, 0]", fillcolor="#e58139ff"] ;
237 -> 245 ;
246 [label="Fare <= 1.136\ngini = 0.397\nsamples = 9\nvalue = [3, 8]", fillcolor="#399de59f"] ;
236 -> 246 ;
247 [label="gini = 0.0\nsamples = 3\nvalue = [0, 3]", fillcolor="#399de5ff"] ;
246 -> 247 ;
248 [label="Fare <= 1.207\ngini = 0.469\nsamples = 6\nvalue = [3, 5]", fillcolor="#399de566"] ;
246 -> 248 ;
249 [label="gini = 0.0\nsamples = 1\nvalue = [2, 0]", fillcolor="#e58139ff"] ;
248 -> 249 ;
250 [label="Fare <= 1.263\ngini = 0.278\nsamples = 5\nvalue = [1, 5]", fillcolor="#399de5cc"] ;
248 -> 250 ;
251 [label="gini = 0.0\nsamples = 3\nvalue = [0, 3]", fillcolor="#399de5ff"] ;
250 -> 251 ;
252 [label="Age <= 33.0\ngini = 0.444\nsamples = 2\nvalue = [1, 2]", fillcolor="#399de57f"] ;
250 -> 252 ;
253 [label="gini = 0.0\nsamples = 1\nvalue = [1, 0]", fillcolor="#e58139ff"] ;
252 -> 253 ;
254 [label="gini = 0.0\nsamples = 1\nvalue = [0, 2]", fillcolor="#399de5ff"] ;
252 -> 254 ;
255 [label="gini = 0.0\nsamples = 6\nvalue = [6, 0]", fillcolor="#e58139ff"] ;
223 -> 255 ;
256 [label="Fare <= 1.248\ngini = 0.128\nsamples = 19\nvalue = [2, 27]", fillcolor="#399de5ec"] ;
184 -> 256 ;
257 [label="Pclass <= 2.5\ngini = 0.231\nsamples = 10\nvalue = [2, 13]", fillcolor="#399de5d8"] ;
256 -> 257 ;
258 [label="gini = 0.0\nsamples = 3\nvalue = [0, 5]", fillcolor="#399de5ff"] ;
257 -> 258 ;
259 [label="Fare <= 1.174\ngini = 0.32\nsamples = 7\nvalue = [2, 8]", fillcolor="#399de5bf"] ;
257 -> 259 ;
260 [label="gini = 0.0\nsamples = 4\nvalue = [0, 7]", fillcolor="#399de5ff"] ;
259 -> 260 ;
261 [label="Title_Mrs <= 0.5\ngini = 0.444\nsamples = 3\nvalue = [2, 1]", fillcolor="#e581397f"] ;
259 -> 261 ;
262 [label="gini = 0.0\nsamples = 2\nvalue = [2, 0]", fillcolor="#e58139ff"] ;
261 -> 262 ;
263 [label="gini = 0.0\nsamples = 1\nvalue = [0, 1]", fillcolor="#399de5ff"] ;
261 -> 263 ;
264 [label="gini = 0.0\nsamples = 9\nvalue = [0, 14]", fillcolor="#399de5ff"] ;
256 -> 264 ;
265 [label="gini = 0.0\nsamples = 33\nvalue = [0, 57]", fillcolor="#399de5ff"] ;
183 -> 265 ;
266 [label="Fare <= 0.939\ngini = 0.238\nsamples = 19\nvalue = [4, 25]", fillcolor="#399de5d6"] ;
182 -> 266 ;
267 [label="gini = 0.0\nsamples = 1\nvalue = [1, 0]", fillcolor="#e58139ff"] ;
266 -> 267 ;
268 [label="Fare <= 1.348\ngini = 0.191\nsamples = 18\nvalue = [3, 25]", fillcolor="#399de5e0"] ;
266 -> 268 ;
269 [label="Age <= 36.449\ngini = 0.137\nsamples = 17\nvalue = [2, 25]", fillcolor="#399de5eb"] ;
268 -> 269 ;
270 [label="gini = 0.0\nsamples = 16\nvalue = [0, 25]", fillcolor="#399de5ff"] ;
269 -> 270 ;
271 [label="gini = 0.0\nsamples = 1\nvalue = [2, 0]", fillcolor="#e58139ff"] ;
269 -> 271 ;
272 [label="gini = 0.0\nsamples = 1\nvalue = [1, 0]", fillcolor="#e58139ff"] ;
268 -> 272 ;
}